digraph Tree {
node [shape=box, style="filled, rounded", color="black", fontname=helvetica] ;
edge [fontname=helvetica] ;
0 [label=<X<SUB>20</SUB> &le; 4.365<br/>mse = 29.326<br/>samples = 3743<br/>value = 3.381>, fillcolor="#e581393e"] ;
1 [label=<X<SUB>18</SUB> &le; 9.0<br/>mse = 10.46<br/>samples = 2752<br/>value = 2.561>, fillcolor="#e5813925"] ;
0 -> 1 [labeldistance=2.5, labelangle=45, headlabel="True"] ;
2 [label=<X<SUB>7</SUB> &le; 450.5<br/>mse = 7.516<br/>samples = 1673<br/>value = 2.214>, fillcolor="#e581391a"] ;
1 -> 2 ;
3 [label=<mse = 17.302<br/>samples = 258<br/>value = 3.12>, fillcolor="#e5813936"] ;
2 -> 3 ;
4 [label=<X<SUB>4</SUB> &le; 1495.0<br/>mse = 5.625<br/>samples = 1415<br/>value = 2.054>, fillcolor="#e5813915"] ;
2 -> 4 ;
5 [label=<X<SUB>6</SUB> &le; 1888.5<br/>mse = 10.025<br/>samples = 459<br/>value = 2.543>, fillcolor="#e5813924"] ;
4 -> 5 ;
6 [label=<mse = 4.286<br/>samples = 231<br/>value = 2.042>, fillcolor="#e5813915"] ;
5 -> 6 ;
7 [label=<mse = 15.536<br/>samples = 228<br/>value = 3.072>, fillcolor="#e5813935"] ;
5 -> 7 ;
8 [label=<X<SUB>2</SUB> &le; 1278.5<br/>mse = 3.322<br/>samples = 956<br/>value = 1.818>, fillcolor="#e581390e"] ;
4 -> 8 ;
9 [label=<X<SUB>10</SUB> &le; 6351.0<br/>mse = 3.88<br/>samples = 745<br/>value = 1.95>, fillcolor="#e5813912"] ;
8 -> 9 ;
10 [label=<X<SUB>12</SUB> &le; 5614.0<br/>mse = 5.471<br/>samples = 451<br/>value = 2.199>, fillcolor="#e581391a"] ;
9 -> 10 ;
11 [label=<mse = 2.168<br/>samples = 211<br/>value = 1.885>, fillcolor="#e5813910"] ;
10 -> 11 ;
12 [label=<mse = 8.266<br/>samples = 240<br/>value = 2.48>, fillcolor="#e5813923"] ;
10 -> 12 ;
13 [label=<mse = 1.387<br/>samples = 294<br/>value = 1.593>, fillcolor="#e5813907"] ;
9 -> 13 ;
14 [label=<mse = 1.148<br/>samples = 211<br/>value = 1.366>, fillcolor="#e5813900"] ;
8 -> 14 ;
15 [label=<X<SUB>1</SUB> &le; 349.5<br/>mse = 14.696<br/>samples = 1079<br/>value = 3.121>, fillcolor="#e5813936"] ;
1 -> 15 ;
16 [label=<X<SUB>12</SUB> &le; 8402.5<br/>mse = 18.234<br/>samples = 582<br/>value = 3.787>, fillcolor="#e581394b"] ;
15 -> 16 ;
17 [label=<mse = 23.383<br/>samples = 381<br/>value = 4.321>, fillcolor="#e581395c"] ;
16 -> 17 ;
18 [label=<mse = 6.92<br/>samples = 201<br/>value = 2.775>, fillcolor="#e581392c"] ;
16 -> 18 ;
19 [label=<X<SUB>13</SUB> &le; 11121.5<br/>mse = 9.391<br/>samples = 497<br/>value = 2.338>, fillcolor="#e581391e"] ;
15 -> 19 ;
20 [label=<mse = 15.218<br/>samples = 241<br/>value = 2.813>, fillcolor="#e581392d"] ;
19 -> 20 ;
21 [label=<mse = 3.214<br/>samples = 256<br/>value = 1.87>, fillcolor="#e5813910"] ;
19 -> 21 ;
22 [label=<X<SUB>4</SUB> &le; 1909.5<br/>mse = 72.67<br/>samples = 991<br/>value = 5.545>, fillcolor="#e5813982"] ;
0 -> 22 [labeldistance=2.5, labelangle=-45, headlabel="False"] ;
23 [label=<X<SUB>2</SUB> &le; 698.5<br/>mse = 117.725<br/>samples = 464<br/>value = 7.377>, fillcolor="#e58139ba"] ;
22 -> 23 ;
24 [label=<mse = 184.222<br/>samples = 245<br/>value = 9.593>, fillcolor="#e58139ff"] ;
23 -> 24 ;
25 [label=<mse = 28.274<br/>samples = 219<br/>value = 4.806>, fillcolor="#e581396b"] ;
23 -> 25 ;
26 [label=<X<SUB>2</SUB> &le; 528.5<br/>mse = 27.638<br/>samples = 527<br/>value = 3.938>, fillcolor="#e5813950"] ;
22 -> 26 ;
27 [label=<mse = 51.722<br/>samples = 200<br/>value = 5.326>, fillcolor="#e581397b"] ;
26 -> 27 ;
28 [label=<mse = 9.516<br/>samples = 327<br/>value = 3.017>, fillcolor="#e5813933"] ;
26 -> 28 ;
}